svm_type nu_svr
kernel_type rbf
gamma 0.25
nr_class 2
total_sv 9
rho -0.548205
SV
0.1088525199466032 0:0.05369427 1:0.89120722 2:0.56006385 3:0.64429355 4:0.56484424 
1 0:0.83719918 1:0.83382254 2:0.79807697 3:0.91233347 4:0.40519105 
0.8171168914207066 0:0.8931971 1:0.37423258 2:0.90708688 3:0.2253969 4:0.88074624 
-0.2536899402134274 0:0.34835452 1:0.48674135 2:0.68092961 3:0.87121439 4:0.042315771 
-0.7822082832156079 0:0.46409959 1:0.88453772 2:0.54985178 3:0.53432861 4:0.097328186 
0.1100217643393317 0:0.18757075 1:0.80697536 2:0.44346619 3:0.58222683 4:0.93093329 
-0.6298788373813603 0:0.28381726 1:0.57205081 2:0.38756903 3:0.64005203 4:0.8249842 
-0.8342229391896044 0:0.75327607 1:0.097865093 2:0.97437402 3:0.13407406 4:0.71495344 
0.4640088242933583 0:0.27599541 1:0.71279904 2:0.70905266 3:0.61387561 4:0.67203529 
