svm_type nu_svr
kernel_type rbf
gamma 0.25
nr_class 2
total_sv 8
rho -1.46504
SV
1 0:0.83719918 1:0.83382254 2:0.79807697 3:0.91233347 4:0.40519105 
0.1724379352955688 0:0.8931971 1:0.37423258 2:0.90708688 3:0.2253969 4:0.88074624 
-0.3807996743307595 0:0.34835452 1:0.48674135 2:0.68092961 3:0.87121439 4:0.042315771 
-1 0:0.46409959 1:0.88453772 2:0.54985178 3:0.53432861 4:0.097328186 
0.4609524827056867 0:0.94649233 1:0.79659386 2:0.85942304 3:0.45416016 4:0.10900246 
0.8666095819987445 0:0.18757075 1:0.80697536 2:0.44346619 3:0.58222683 4:0.93093329 
-1 0:0.28381726 1:0.57205081 2:0.38756903 3:0.64005203 4:0.8249842 
-0.1192003256692406 0:0.75327607 1:0.097865093 2:0.97437402 3:0.13407406 4:0.71495344 
