svm_type nu_svr
kernel_type rbf
gamma 0.25
nr_class 2
total_sv 9
rho -0.497355
SV
-0.5688200881173764 0:0.67812099 1:0.42282715 2:0.97783532 3:0.53468198 4:0.35986184 
-0.4147265612468888 0:0.011539889 1:0.71664507 2:0.10464016 3:0.024197167 4:0.45640164 
-0.2718302768601953 0:0.54848906 1:0.23771539 2:0.49915195 3:0.88048759 4:0.23960214 
1 0:0.71078755 1:0.38567821 2:0.3948649 3:0.58643215 4:0.75651684 
0.3736757259464329 0:0.97494288 1:0.81526826 2:0.17583248 3:0.48209844 4:0.4280226 
0.5091405369281936 0:0.88495045 1:0.86545933 2:0.85021885 3:0.12825235 4:0.49011424 
0.6171837371253732 0:0.34066236 1:0.11460827 2:0.91073381 3:0.81107009 4:0.90634379 
-0.7565384774768655 0:0.56605959 1:0.46951064 2:0.23511849 3:0.18804793 4:0.75005373 
-0.4880845962986736 0:0.45008775 1:0.075484216 2:0.071090831 3:0.75393113 4:0.77292606 
