svm_type nu_svr
kernel_type rbf
gamma 0.25
nr_class 2
total_sv 7
rho -2.63826
SV
-1 0:0.011539889 1:0.71664507 2:0.10464016 3:0.024197167 4:0.45640164 
-0.2088311496159567 0:0.54848906 1:0.23771539 2:0.49915195 3:0.88048759 4:0.23960214 
0.5 0:0.97494288 1:0.81526826 2:0.17583248 3:0.48209844 4:0.4280226 
1 0:0.88495045 1:0.86545933 2:0.85021885 3:0.12825235 4:0.49011424 
1 0:0.34066236 1:0.11460827 2:0.91073381 3:0.81107009 4:0.90634379 
-0.6059487771666792 0:0.56605959 1:0.46951064 2:0.23511849 3:0.18804793 4:0.75005373 
-0.6852200732173642 0:0.45008775 1:0.075484216 2:0.071090831 3:0.75393113 4:0.77292606 
